<?xml version="1.0"?>
<opencv_storage>
<cascade>
  <stageType>BOOST</stageType>
  <featureType>HAAR</featureType>
  <height>20</height>
  <width>20</width>
  <stageParams>
    <boostType>GAB</boostType>
    <minHitRate>9.9900001287460327e-01</minHitRate>
    <maxFalseAlarm>5.0000000745058060e-02</maxFalseAlarm>
    <weightTrimRate>9.4999999999999996e-01</weightTrimRate>
    <maxDepth>1</maxDepth>
    <maxWeakCount>100</maxWeakCount></stageParams>
  <featureParams>
    <maxCatCount>0</maxCatCount>
    <featSize>1</featSize>
    <mode>ALL</mode></featureParams>
  <stageNum>3</stageNum>
  <stages>
    <!-- stage 0 -->
    <_>
      <maxWeakCount>5</maxWeakCount>
      <stageThreshold>-3.8696560263633728e-01</stageThreshold>
      <weakClassifiers>
        <_>
          <internalNodes>
            0 -1 14 2.2400137968361378e-03</internalNodes>
          <leafValues>
            -6.8692451715469360e-01 8.1619256734848022e-01</leafValues></_>
        <_>
          <internalNodes>
            0 -1 10 -5.8331405743956566e-03</internalNodes>
          <leafValues>
            9.8857367038726807e-01 -5.6611174345016479e-01</leafValues></_>
        <_>
          <internalNodes>
            0 -1 0 2.3451350629329681e-02</internalNodes>
          <leafValues>
            -9.2374283075332642e-01 6.3296467065811157e-01</leafValues></_>
        <_>
          <internalNodes>
            0 -1 17 -2.1922050043940544e-02</internalNodes>
          <leafValues>
            9.2508316040039062e-01 -5.2828812599182129e-01</leafValues></_>
        <_>
          <internalNodes>
            0 -1 7 -6.1632981523871422e-03</internalNodes>
          <leafValues>
            7.6341617107391357e-01 -6.3580238819122314e-01</leafValues></_></weakClassifiers></_>
    <!-- stage 1 -->
    <_>
      <maxWeakCount>8</maxWeakCount>
      <stageThreshold>-3.0428782105445862e-01</stageThreshold>
      <weakClassifiers>
        <_>
          <internalNodes>
            0 -1 13 1.4728246256709099e-02</internalNodes>
          <leafValues>
            -6.7017543315887451e-01 8.8837206363677979e-01</leafValues></_>
        <_>
          <internalNodes>
            0 -1 15 3.9132740348577499e-03</internalNodes>
          <leafValues>
            -5.6228184700012207e-01 9.3814533948898315e-01</leafValues></_>
        <_>
          <internalNodes>
            0 -1 1 9.5402318984270096e-03</internalNodes>
          <leafValues>
            -9.1106009483337402e-01 5.8337199687957764e-01</leafValues></_>
        <_>
          <internalNodes>
            0 -1 4 -8.5489459335803986e-02</internalNodes>
          <leafValues>
            -9.9434328079223633e-01 3.6342737078666687e-01</leafValues></_>
        <_>
          <internalNodes>
            0 -1 11 -7.8583844006061554e-03</internalNodes>
          <leafValues>
            4.1773241758346558e-01 -8.7832641601562500e-01</leafValues></_>
        <_>
          <internalNodes>
            0 -1 9 1.8032405525445938e-02</internalNodes>
          <leafValues>
            -5.3218686580657959e-01 9.3530148267745972e-01</leafValues></_>
        <_>
          <internalNodes>
            0 -1 12 5.7019256055355072e-03</internalNodes>
          <leafValues>
            -5.7569801807403564e-01 9.7366786003112793e-01</leafValues></_>
        <_>
          <internalNodes>
            0 -1 2 1.1355942115187645e-02</internalNodes>
          <leafValues>
            -8.2326859235763550e-01 6.7152261734008789e-01</leafValues></_></weakClassifiers></_>
    <!-- stage 2 -->
    <_>
      <maxWeakCount>5</maxWeakCount>
      <stageThreshold>6.5878815948963165e-02</stageThreshold>
      <weakClassifiers>
        <_>
          <internalNodes>
            0 -1 6 -6.3303513452410698e-03</internalNodes>
          <leafValues>
            9.3732196092605591e-01 -5.0693374872207642e-01</leafValues></_>
        <_>
          <internalNodes>
            0 -1 5 -5.7442583143711090e-02</internalNodes>
          <leafValues>
            9.5584905147552490e-01 -4.1160660982131958e-01</leafValues></_>
        <_>
          <internalNodes>
            0 -1 8 -2.2009044885635376e-02</internalNodes>
          <leafValues>
            9.6908384561538696e-01 -3.8619589805603027e-01</leafValues></_>
        <_>
          <internalNodes>
            0 -1 16 -6.7006768658757210e-03</internalNodes>
          <leafValues>
            9.7729313373565674e-01 -3.4497073292732239e-01</leafValues></_>
        <_>
          <internalNodes>
            0 -1 3 -8.2363738329149783e-05</internalNodes>
          <leafValues>
            -9.7413378953933716e-01 5.3017568588256836e-01</leafValues></_></weakClassifiers></_></stages>
  <features>
    <_>
      <rects>
        <_>
          0 0 20 5 -1.</_>
        <_>
          5 0 10 5 2.</_></rects>
      <tilted>0</tilted></_>
    <_>
      <rects>
        <_>
          0 0 10 6 -1.</_>
        <_>
          0 3 10 3 2.</_></rects>
      <tilted>0</tilted></_>
    <_>
      <rects>
        <_>
          1 12 19 8 -1.</_>
        <_>
          1 14 19 4 2.</_></rects>
      <tilted>0</tilted></_>
    <_>
      <rects>
        <_>
          2 0 1 2 -1.</_>
        <_>
          2 0 1 1 2.</_></rects>
      <tilted>1</tilted></_>
    <_>
      <rects>
        <_>
          4 4 9 12 -1.</_>
        <_>
          7 8 3 4 9.</_></rects>
      <tilted>0</tilted></_>
    <_>
      <rects>
        <_>
          5 2 15 3 -1.</_>
        <_>
          4 3 15 1 3.</_></rects>
      <tilted>1</tilted></_>
    <_>
      <rects>
        <_>
          5 10 1 3 -1.</_>
        <_>
          5 11 1 1 3.</_></rects>
      <tilted>0</tilted></_>
    <_>
      <rects>
        <_>
          5 10 9 1 -1.</_>
        <_>
          8 10 3 1 3.</_></rects>
      <tilted>0</tilted></_>
    <_>
      <rects>
        <_>
          7 10 10 2 -1.</_>
        <_>
          7 10 5 1 2.</_>
        <_>
          12 11 5 1 2.</_></rects>
      <tilted>0</tilted></_>
    <_>
      <rects>
        <_>
          7 12 3 3 -1.</_>
        <_>
          8 13 1 1 9.</_></rects>
      <tilted>0</tilted></_>
    <_>
      <rects>
        <_>
          8 6 3 1 -1.</_>
        <_>
          9 6 1 1 3.</_></rects>
      <tilted>0</tilted></_>
    <_>
      <rects>
        <_>
          8 16 12 4 -1.</_>
        <_>
          14 16 6 4 2.</_></rects>
      <tilted>0</tilted></_>
    <_>
      <rects>
        <_>
          9 7 3 1 -1.</_>
        <_>
          10 7 1 1 3.</_></rects>
      <tilted>0</tilted></_>
    <_>
      <rects>
        <_>
          9 7 3 3 -1.</_>
        <_>
          10 8 1 1 9.</_></rects>
      <tilted>0</tilted></_>
    <_>
      <rects>
        <_>
          9 10 1 2 -1.</_>
        <_>
          9 11 1 1 2.</_></rects>
      <tilted>0</tilted></_>
    <_>
      <rects>
        <_>
          10 13 3 1 -1.</_>
        <_>
          11 13 1 1 3.</_></rects>
      <tilted>0</tilted></_>
    <_>
      <rects>
        <_>
          13 9 1 3 -1.</_>
        <_>
          13 10 1 1 3.</_></rects>
      <tilted>0</tilted></_>
    <_>
      <rects>
        <_>
          13 10 3 3 -1.</_>
        <_>
          14 11 1 1 9.</_></rects>
      <tilted>0</tilted></_></features></cascade>
</opencv_storage>
